31 100
' 0.28717095 -1.5772731 0.5949055 0.00814593 0.007950119 0.04898991 0.21194026 -0.21684243 0.06922028 0.59675956 -0.093781225 0.29282823 0.22036116 0.22736953 -0.43379804 -0.9889149 -0.2341837 -0.52472556 -0.27897286 0.19978066 -0.7035762 0.0421659 0.5808048 -0.32456303 -0.10794786 0.061669268 0.25876597 -0.6306409 -0.18284258 0.09758281 -0.3360529 0.1225035 0.32764244 -0.056858487 -0.45291337 -0.23013557 0.2795869 -0.7709842 -0.2898918 -0.31007951 0.18026513 -0.37816668 0.16483447 0.60768133 -1.0709437 -0.73364973 -0.43725213 0.6377291 -0.6729717 -0.37725344 -0.13616984 -0.16693318 0.030066952 0.44699374 -0.58461475 -0.029690398 0.46109807 -0.018950958 -0.4406275 -0.19043407 -0.5621206 -0.22573468 0.42146257 -0.19472307 0.22263391 0.27813053 -0.02217257 0.27876878 -0.023297284 -0.35573083 0.35557523 -0.15954259 0.46012557 -0.44214734 0.043186437 0.49163225 0.623038 -0.08622241 -0.1374098 0.5975551 0.17820872 -0.22290818 0.2231862 0.031765174 -0.29924032 0.11975159 -0.31305066 -0.045207355 0.09799503 0.5466637 -0.032391224 -0.308272 -0.5154444 -0.75491536 -1.1262974 0.72215223 0.0094904415 0.40112543 -0.6912383 0.09740206
, 0.59838593 -1.3814551 0.41048363 0.33865675 -0.34242633 0.29467237 0.008997611 -0.5205769 -0.06810508 0.65067357 -0.6806821 1.083146 0.077919066 0.37292203 -1.2244765 -0.2107058 -0.28734088 0.23876508 -0.66355115 0.3513389 -1.0888873 -0.0069768806 0.32524413 0.30193046 0.480377 -0.14005812 0.16036527 -1.3153595 -0.9044482 0.048836388 -0.6775879 0.14540826 0.4646506 0.2093168 -0.4237389 -0.2317196 -0.36213312 -0.88777 -1.0646975 -0.16807055 0.15299338 -0.50948656 0.03751066 0.7177094 -1.4706602 -0.8575226 -0.5583478 0.9279289 -0.09199129 -0.7490285 -0.35700157 -0.12815078 0.021604396 -0.22772923 -0.4389986 0.16085662 0.17322367 0.33964667 -0.28892872 -0.46583784 0.43987933 0.35180074 -0.38425815 -0.3827544 0.98495513 -0.7028652 0.030326255 -0.18786341 0.2989546 -0.29563066 0.12936711 -0.55777675 0.3480508 -0.35707733 0.5127078 1.3458273 0.7551108 -0.011703323 -0.2242197 0.5068943 0.17772731 -0.21851024 0.8427995 0.31710222 0.02536543 0.54158527 0.07529093 0.343645 0.7342654 0.98878276 0.42008835 -0.08112346 -0.49757668 -0.71832967 -1.1230979 1.2991302 0.099490546 0.19618057 -0.531829 0.15157448
  -0.35328564 -1.8077024 0.6258778 -0.19410409 -0.018136414 -0.30018425 0.1648901 -0.19712968 -0.2276317 0.8215027 -0.9418561 0.7726458 0.47746876 0.24831133 -0.4327297 -1.0734049 0.17035241 -0.092664465 -1.1655761 0.067971416 -1.5574304 0.24253021 0.7503713 0.38978946 0.16100374 0.11359589 -0.047354955 -0.5225436 -0.31890506 0.20761654 -0.36897975 0.043968234 0.31716302 -0.11307775 -0.3830681 -0.09713799 0.6407631 -0.3610864 -0.11020991 -0.093491554 0.3604838 -0.43965912 -0.07289896 0.38287136 -1.3773408 -0.5388408 -0.678405 1.0278211 -0.4026028 -0.61668396 -0.05781565 -0.07032038 -0.006415035 0.45442745 -0.3956519 0.26825902 0.019666819 0.24960491 -0.30707705 -0.10038216 0.35997507 0.4868288 -0.95560414 -0.5549757 0.28653154 -0.12443193 0.09403385 -0.07247663 0.6663218 -0.8364559 0.7643625 -0.7256634 0.608597 -0.19035196 0.5801311 0.67350554 0.5361815 -0.0636488 -0.16566144 -0.27545384 -0.3562122 -0.4589774 0.99293995 0.6858148 0.49977687 -0.029757308 -0.18345025 0.007270776 0.5974538 0.74031025 0.01745775 0.055423208 -0.20622507 -0.35300288 -0.8283725 0.9061137 0.19416358 0.46792737 -0.6317935 0.32593906
e 0.5254965 -0.46093222 0.5451944 0.14109907 -0.29671627 -0.064000875 -0.10578336 -0.5234067 0.7061573 0.5496816 -0.1753575 0.71488285 0.32151783 -0.3112508 -0.24428324 -0.028185138 -0.16317293 -0.31711975 -0.12283856 -0.6362505 -0.09567109 -0.096883714 -0.41106665 0.6018299 -0.0010775718 -0.08654073 -0.0130131 -0.30098766 -0.2394831 0.008263456 -0.6188022 -0.083963126 0.26002356 -0.099034294 -0.4832672 0.358655 0.08120124 0.21860443 0.039092287 -0.21700108 0.6535721 -0.35089144 -0.20292854 0.120328434 -0.73573047 -0.4749204 -0.37205496 0.24702887 0.015225201 -0.2799755 0.46110463 0.3868871 -0.06914544 0.017848931 0.015943006 -0.0760343 0.41788435 0.037212726 -0.4912665 -0.22984608 0.28226936 0.0908365 0.09526407 -0.42991406 0.081528306 0.09430239 -0.03797001 0.118199065 0.33469743 -0.44990253 0.5494207 -0.2060768 0.40713206 -0.08676865 0.1832812 0.38292754 -0.21601015 -0.35317245 0.5181861 1.2541595 0.3956924 -0.10470816 0.39471278 -0.31119922 0.19536968 0.111896135 0.025869088 0.43456918 0.5665805 0.5824546 0.4279053 0.0052056713 -0.10331161 -0.44178846 -0.53098553 0.69971704 -0.26856747 -0.038537815 -0.31053838 -0.29549366
a 0.52353424 -0.5856554 0.42944765 -0.4455458 0.07072469 -0.18074395 0.00749548 0.19799584 -0.1421558 0.60031056 -0.12924162 -0.23912348 -0.04200817 0.26368532 -1.2202902 -0.50559574 -0.24214078 -0.2520794 0.06758311 -0.49642396 -0.34503543 -0.5687896 -0.3717863 0.62922174 0.348612 -0.6488333 0.032470867 -0.45717904 -0.22954626 -0.11272802 -0.40085858 0.27481863 0.0074087866 0.3277526 0.017862864 -0.044790436 0.41954574 -0.040791847 -0.5714933 0.06792591 0.12688522 -0.615763 -0.042631105 0.33567318 -1.0278733 -0.053786833 -0.46127865 0.16951373 0.17897673 0.049821112 0.3640225 0.0054652086 -0.21283372 0.0148218 -0.30475327 -0.030679753 0.3625736 0.1650423 -0.00055176276 -0.4673956 0.33064494 0.3781569 -0.85389805 -0.77249235 -0.077819034 -0.3279527 -0.17560107 0.16026673 0.9765741 -0.25835767 0.35652858 -0.7891319 0.59808123 0.17794906 0.6161182 0.60903674 0.12499301 0.037314504 -0.049364686 0.51617104 0.44895664 -0.04943589 0.11613454 -0.23439424 0.30569112 0.1338728 -0.021310242 -0.54537237 0.15935251 0.41444403 -0.23349084 0.09332784 0.0735109 -0.23212183 -1.028527 0.4452021 -0.14989205 0.31727847 -0.44012105 -0.3607603
t 0.428194 -0.7978191 1.2326412 0.8196538 -0.36351475 -0.24817173 -0.23092543 -0.3603631 -0.18094671 0.84396875 -0.8387759 1.2124763 0.13982916 0.32883528 -0.2651026 -0.0018120186 0.27122995 -0.14203237 -0.77705944 -0.7737221 -1.3785121 0.1570986 0.13182944 0.27513215 0.29533607 0.018303348 -0.09407859 -0.28594553 -0.27570027 0.40417466 0.16506751 -0.1658867 0.21386242 -0.121817596 0.017682308 -0.40946785 -0.086028315 -0.57746047 0.14421798 0.15219082 -0.27749816 -0.23376083 0.72264284 0.15434174 -0.53841484 -0.9422724 -0.26422477 0.7247113 -0.0064271116 -0.799495 0.34670165 -0.11481979 -0.1804864 0.23671167 -0.68657714 0.572159 0.27316475 0.44727066 -0.20452878 -0.93537873 0.2651652 0.33681512 -0.23890369 -0.040127072 0.7177166 -0.66644204 0.009160845 -0.21650016 -0.3524736 0.11905259 0.32494634 -0.05712343 0.23715113 0.026572429 0.062420547 0.84206825 0.15905933 0.30186057 -0.5157607 0.14015788 -0.04417901 -0.4294463 0.39546096 0.24625109 -0.14775605 0.19089486 -0.1936141 -0.22847193 -0.18986402 0.6449091 0.3785633 -0.30832654 -0.19251579 -0.54335064 -0.23140538 0.32878256 0.9653503 0.08838449 -0.37541297 0.22749189
r 0.52439046 -0.31802636 -0.15097138 -0.12471801 -0.57215685 0.1679597 0.009234314 -0.23023315 -0.084950835 0.13969168 0.016738363 0.40896124 0.375883 -0.27666715 -0.4830815 -0.23913334 -0.20989984 -0.19588165 0.5457726 0.2844763 -0.5461011 0.1491256 0.3190844 0.2910686 -0.502203 0.17436518 -0.20660159 0.45950767 0.28361472 0.036011975 -0.322218 -0.3323084 0.7033597 -0.4736109 -0.4872921 -0.32891074 0.34413674 -0.16076286 -0.34275323 -0.21125948 -0.18695956 -0.1244827 0.009155524 0.4156264 -0.2586532 -0.24643902 0.53402424 0.44226593 0.21474004 -0.32643926 -0.009008026 -0.19334526 0.12945746 -0.4651549 -0.04113305 0.46742103 0.14162953 0.1582672 -0.012549316 -0.2202438 0.1265224 -0.23197447 0.00442381 -0.31785956 -0.21518965 0.052388526 -0.16951564 0.011620121 0.291864 -0.0455193 0.46587786 -0.19578299 0.25210273 -0.19330013 0.7341449 0.47499296 0.486697 0.14218278 -0.06616429 -0.34636027 -0.9225168 -0.30531505 0.5137016 0.20508623 0.2380183 0.055578366 -0.14048463 0.30765504 0.5289844 0.3665914 0.33100727 -0.34040964 -0.1547576 -0.19118053 -0.6317922 0.7890157 0.7136926 0.09946529 -0.72540957 -0.27710578
i 0.23423424 -0.16377652 0.2905345 -0.01801225 0.0031375256 -0.5591403 0.79256034 1.2025236 0.25496957 0.15500402 0.14014906 0.19316402 0.2251135 0.7067343 -0.48327765 -0.749073 0.79755574 0.1072876 -0.7488816 -0.6863165 -0.121063605 -0.48995453 0.5539153 0.35294157 0.05084134 -0.34874603 -0.6913424 0.15699434 -0.3622466 -0.25355303 -0.42472658 0.2431185 0.10525488 0.1464975 -0.5916883 -0.027825205 0.21563618 -0.6983247 -1.173767 0.34446824 -0.029835254 0.071361214 0.049017645 0.2591868 -1.1184559 -0.4836716 -0.41159046 0.46237272 0.29315633 -0.29144034 0.28906056 -0.46115768 -0.24564157 -0.50297904 -0.36188155 -0.04681091 0.34762576 -0.06764648 0.039665177 -0.90200055 0.18830006 0.3283231 -0.06412721 -0.8213758 -0.2372063 -0.08924701 0.007884588 0.124261625 0.08974327 -0.24053775 0.4483723 -0.5330961 0.602343 -0.18410733 0.49544084 0.69923717 -0.100170985 0.10374458 -0.045478538 0.8885494 -0.38698217 -0.3008254 0.5190161 -0.47578242 0.13620701 0.23265569 0.37913007 0.36400014 0.24524735 0.59273016 0.008453118 -0.061564766 -0.032700073 -0.29958102 -0.2964842 0.79388916 -0.3646551 0.6353023 -0.2693913 -0.027274637
l 0.94514483 -1.155225 0.48732114 0.55588037 -0.155553 -0.30705598 -0.33237734 -0.3489111 -0.5127033 0.114080384 -0.53256094 0.2702179 0.2738369 0.33616573 -0.3272031 0.0029035327 0.25239584 -0.19338173 -0.041381195 -0.2534098 -0.957874 -0.10589656 -0.10543515 0.47175083 0.48594987 -0.05184473 0.21145716 -0.07129257 -0.0286561 0.37742206 -0.50781775 0.029727098 -0.33919454 -0.28717804 0.16607818 -0.1869508 0.5986583 -0.3739514 -0.8554479 -0.044210088 0.3481467 -0.43723392 -0.32206157 0.3191389 -0.41400474 -0.19550078 -0.52648056 0.08422055 -0.345361 -0.4180936 -0.017058698 -0.28284273 0.071029924 0.08392864 -0.24557483 0.25376332 0.34363094 0.31682214 -0.14123936 -0.37655395 -0.2327861 -0.31146672 -0.03062515 -0.012736883 0.29225275 -0.3500743 -0.07339176 0.2268942 0.5029972 -0.033159755 0.08380488 -0.029521255 0.15031494 -0.088533565 0.14731912 0.25971857 0.26945856 0.1004377 -0.1776235 -0.4802789 0.05481877 -0.26514274 0.54430073 -0.056670338 0.22741465 -0.3661011 -0.29422292 -0.046367675 0.9305077 0.17060557 0.5646007 0.18073548 -0.05235722 -0.85445607 -0.49561614 0.7163401 0.69681203 -0.042457752 -0.5875232 -0.17174554
n 0.2395061 0.017529264 0.76149625 0.092072986 -0.13584216 -0.2723248 0.4674017 -0.20721008 -0.14109349 0.53738856 -0.26323298 0.28898397 0.49406976 -0.42588815 -0.188647 -0.76712364 -0.6825915 -0.38907522 0.35415787 0.4483541 -0.7717812 0.35619298 0.7928642 0.36912534 -0.1631196 0.4132529 0.07095356 -0.4929761 0.3512187 0.36141706 -0.5542577 -0.10257821 0.17148328 -0.14493728 -0.3178542 -0.60234314 -0.48375455 0.005796555 0.07884377 -0.8386511 -0.30525336 0.07026078 0.0714678 0.31080404 -0.80732614 -0.43860424 0.46015656 0.48085982 -0.7401213 -0.6218459 0.079275385 -0.11626521 0.08976611 -0.21067668 0.069569975 0.19322774 0.09850369 -0.02265533 -0.06154702 0.11876694 -0.06473309 -0.24299787 0.022776634 0.06438765 0.011128439 -0.11185546 0.0025607415 -0.32728505 -0.2873821 -0.097266406 0.26178923 0.60009354 0.55815417 -0.20354174 0.6016141 0.8693907 0.8433705 -0.2902177 -0.28535143 -0.96923614 0.39135394 -0.44522527 0.8349029 0.30367884 0.4031272 0.080673575 0.09268501 -0.060853843 0.9399444 0.0746585 0.5263877 0.34794715 0.37823096 -0.7689081 -1.0195957 0.9730459 0.59631306 0.3900739 -0.44196504 -0.051190436
o 0.6575089 -0.21546485 -0.049014084 -0.36809516 0.044451535 0.11595491 -0.38203606 -0.08638515 -0.19697198 -0.1636366 -0.09230359 -0.18786782 0.15765728 0.34393704 0.037068352 -0.2105461 0.2720682 -0.0021566257 -0.5580447 -0.58274674 -0.24810362 -0.13890973 -0.060287174 -0.013177417 0.3336155 0.045182984 0.12689658 0.28555802 -0.34054053 0.25092524 -0.7414514 -0.045282383 -0.09084377 0.0028825167 -0.48656583 0.2940412 0.47887555 -0.5529251 -0.4641661 0.26180348 -0.01926605 0.37181222 0.29574087 0.2919451 -0.7416075 -0.030927258 0.020488882 0.39858398 0.13519372 -0.34809732 0.2849429 0.31690857 -0.18120453 -0.08810617 0.07258263 -0.109025106 0.22228076 0.32854962 0.015517253 -0.21749571 0.5719864 0.11118047 -0.2624905 -0.28969792 0.07252244 0.109252386 0.023820002 0.1696224 0.24037755 0.10702363 0.47921485 -0.8032008 0.8830564 -0.3074069 -0.11231832 0.2102984 0.1260143 -0.07307917 0.28667653 0.76979357 0.02700989 -0.35062128 0.0713999 -0.31811997 0.5234847 -0.018150426 0.0029777035 0.20326225 0.46686113 0.23537011 -0.01682177 -0.020325286 -0.10644213 -0.31604984 -1.083907 0.2816473 -0.41496006 0.34120107 -0.08376034 -0.20379245
s -0.16471645 -0.53832793 0.29086554 -0.0637525 -0.3754954 -0.011567765 0.082243025 -0.017351022 -0.4114217 0.87548333 -0.71040225 0.91085064 -0.06932921 -0.2331736 -0.4550412 -0.2494551 -0.20463891 -0.3538724 0.07594357 -0.35823157 -0.43960363 -0.32354647 0.012869488 0.5772359 -0.05879036 -0.21779418 -0.28705218 -0.5925125 -0.202283 -0.3013683 0.27037826 -0.08974052 0.26345837 0.1288689 -0.20595577 -0.22918752 0.47532845 -0.056646727 -0.44195738 0.06764001 -0.010433845 -0.5245023 0.5518251 -0.19244076 -0.66948146 -0.3474228 -0.45275638 0.569535 -0.55256224 0.020245427 -0.33872786 0.057282504 -0.17735265 0.24901204 -0.38861272 -0.3331581 0.14329441 -0.14191908 -0.22656712 -0.17868528 0.23632447 0.052216906 -0.17949405 -0.088015355 0.30986115 -0.44152683 0.039827216 -0.30620447 0.71270907 -0.47970128 -0.16822654 -0.460579 -0.0798799 -0.032041285 0.6578245 0.7139789 0.8397441 0.27011758 -0.51020163 -0.05961494 -0.14323813 -0.20652167 0.14367412 0.69066274 -0.0050072963 0.12876727 -0.24153659 0.19603837 0.3763003 0.6806003 -0.21077655 0.18888962 -0.3316115 -0.15561745 -0.5907228 0.8255754 0.314279 0.08390172 -0.37843284 0.22618169
d -0.2231708 0.090854466 -0.09758944 -0.09775647 -0.24680015 0.15884484 -0.6222164 -1.110779 -0.013902465 0.7626724 -0.39895514 0.5586788 -0.4432921 -0.0033311034 -0.5719044 -0.084337994 0.39477432 -0.44387645 -0.37506706 0.05225004 -1.3681904 0.27535743 0.29743928 0.4666148 0.16078748 -0.10367032 -0.16739601 0.07519792 -0.15268116 0.515131 0.18071821 -0.036693253 0.17059468 -0.29685888 0.42847127 -0.4572846 0.3596603 -0.01534712 -0.3604384 -0.40698186 -0.51026714 -0.30458623 -0.32604605 0.16323021 -0.12623091 -0.1707535 0.0071076257 0.62170464 -0.2586809 -0.42226323 -0.27524194 -0.49054065 -0.009919901 0.26771158 -0.09488796 0.42001677 -0.27927855 0.09666062 0.08496381 -0.42540464 0.0003524598 -0.2013764 0.021933598 -0.05436448 0.59654254 -0.84972745 -0.32157904 0.13874435 -0.07150602 -0.10722377 -0.16767564 -0.17871392 0.30611956 -0.90061295 0.25687137 0.63099664 0.06021656 0.43919936 -0.47530437 -0.3524926 0.26793963 -0.10804218 0.87883914 0.2449957 0.21170774 -0.19023074 -0.02665818 0.2927119 0.1418935 0.21717761 -0.093827315 0.13193646 -0.6591658 -0.5735841 -0.7363836 -0.30225286 0.1580137 0.5327918 -0.58594227 0.3720497
h 0.64090747 -0.54440093 -0.2886782 0.93454283 -0.10689567 -0.0054694647 -0.14319749 -0.2767867 -0.625772 0.6437135 -0.34150916 0.45501018 0.038576324 0.18999879 -0.9657621 -0.20111969 0.26594505 -0.43655035 -0.40565974 -0.5479159 -1.157446 -0.5031393 -0.004245964 0.34470886 0.47293776 -0.60254693 0.6040476 -0.6476482 -0.42398158 0.54324746 -0.47214225 -0.12710425 -0.9325248 -0.20354085 -0.48473477 0.6037726 0.9549254 -0.056897197 -0.46413502 -0.40716252 0.2816584 -0.31782666 -0.025958734 -0.15845932 -0.88057595 -0.04039184 -1.0770577 0.64719236 -0.47919062 -0.45874944 -0.032095306 -0.5429928 -0.035514068 0.2526451 -0.8264323 -0.5744869 0.6475278 0.07814973 -0.337834 -0.27665314 0.5442925 0.2212874 0.2730415 -0.2273036 0.40332764 -0.19287133 0.65602434 -0.25356415 0.37838185 0.043832902 -0.09516004 -0.29166034 0.87601155 -0.5072126 0.63391745 0.5730385 0.6452031 1.2651435 -0.2730758 -1.6915959 -0.32799003 -0.922304 0.2519371 0.047471102 -0.18542317 -0.29686108 -0.4489973 0.029421668 1.0705822 0.6402379 -0.36559263 0.6321859 -0.38340238 -0.6464714 -0.76400006 0.63018876 0.25578663 0.5509502 -0.2474623 -0.0688574
c 0.12703462 -0.57645786 0.8175618 -0.47785604 -0.17120829 0.19688874 -0.33983594 -0.6313509 0.29875082 0.4785056 -0.32612947 0.41197693 -0.05882049 -0.08924498 -0.062928684 -0.2963723 -0.03636022 0.35766298 0.06526528 0.12795834 -0.47256252 0.3257151 0.45236832 -0.42960173 0.12184279 0.15140067 -0.43124947 0.0871967 -0.48981604 -0.10949519 0.5160409 0.03678189 0.17050311 -0.14435963 0.0066328263 -0.32302648 -0.20058852 0.4484169 0.2711368 -0.68388474 -0.058549102 -0.73309577 -0.13820106 0.056694053 -0.58963543 -0.6424572 -0.23947486 0.4887999 -0.2428864 -0.13336007 -0.17867993 0.025613055 0.44435775 0.025307065 0.163581 0.28202 -0.5594032 0.04830986 -0.40193978 -0.033186056 -0.31320593 0.20701574 -0.6110573 0.10755039 0.97395706 -1.353565 -0.3884435 -1.1968869 0.46219176 -0.65129244 0.1527518 -0.27959096 -0.45414513 -0.45781115 0.022089204 0.24993765 0.026665466 -0.502324 0.031078698 0.20086832 -0.2662829 0.36510238 0.6394822 0.6396423 -0.38789648 0.25903147 0.026286779 0.09370324 -0.434254 0.4838148 0.06876714 -0.3877029 -0.089366436 -0.33606553 -0.6028156 0.4027352 0.31661087 0.36778057 -0.8667314 -0.5517631
g -0.36548105 -0.96902335 0.5862309 -0.37037623 -0.06742886 0.03204108 -0.38781282 -0.41644073 0.9102908 0.274812 -0.090180755 0.2903707 -0.48760605 -0.17998196 -0.59432524 -0.36044857 -0.31841606 0.19261666 -0.91186666 0.9395045 -0.79598266 0.5096182 0.010703213 -0.06269723 -0.3414881 -0.33178157 0.30427903 -0.56507653 -0.4523455 -0.77278113 0.11275536 -0.0674277 -0.10783865 0.4889855 -0.4361931 -0.36344945 -0.6732031 0.10901511 0.87726605 0.619287 -0.3514917 -0.12983496 0.42469764 -0.6475762 -0.7554346 -0.09110745 -0.3772309 0.7669508 0.14204699 -0.0065094554 -0.08658382 -0.015607224 0.13180111 0.36430466 -0.039656937 0.54060227 -0.08378512 0.5714444 -0.016677218 -0.29983738 0.2903094 0.646309 -0.96430147 -0.35108957 1.3029351 -1.2494534 -0.4200033 -0.693271 0.00034814433 -0.4343485 -0.27557933 -0.71531147 0.044643473 -0.31803674 -0.7338792 0.12344766 -0.2433693 -0.34166166 -0.25799504 -0.09817968 -0.14930667 -0.28407106 0.2208688 0.46745998 -0.11698699 -0.037719607 0.042797975 -0.40396085 -0.56877446 0.7061402 -0.10205932 0.120587096 -0.07365969 -0.019747056 0.7699616 0.04550013 -0.21084096 0.5714228 0.18499288 0.26544508
y 0.24176951 -0.4583292 -0.1767268 0.1908053 0.3340581 -0.009370103 0.018785512 -0.5973613 0.5146705 0.37315312 0.071326055 0.4375179 -0.38006625 -0.56682044 -0.78016156 -0.5490303 -0.07577294 0.032292914 -0.64600044 -1.0020599 -0.78896475 0.52438337 0.550385 0.31483823 0.15240526 -0.15048917 0.4227056 -0.5790322 -0.5837723 0.16972114 -0.19795315 -0.07953971 -0.16024789 0.15730755 -0.529284 0.2621308 0.48279202 -0.46653712 -0.16557094 -0.59854084 0.2350844 -0.77329785 -0.74059796 0.45004708 -0.49598566 -0.42338812 -0.29971427 0.33177614 0.16314341 -0.2501103 0.13618524 -0.36310288 -0.06585259 0.39917824 -0.25473127 0.096509926 0.08978097 -0.31229827 -1.02494 -0.23210055 0.12639207 0.07407512 0.6804639 -0.40818423 0.4116323 -0.542404 -0.14044204 -0.29279774 0.43031973 -0.463344 0.51111746 -0.6115892 0.12395489 -0.75714993 0.24664612 0.08785865 0.50479734 0.31288418 0.3108746 0.24987273 0.51393956 -0.37495527 0.12354994 0.12643625 0.020098248 -0.22487159 -0.19880596 0.11468794 0.59742457 0.91035116 -0.20996857 0.016366322 -0.015952313 -0.39206263 -0.004138481 0.483641 0.23725617 -0.25611624 -0.56301 -0.0881079
u -0.27538034 -0.11165362 0.60901386 0.8190656 -0.10173837 -0.40579405 0.33484486 0.7119913 0.25666294 -0.37200254 0.6300701 0.04316813 0.12840098 0.2578197 -0.7009559 -0.8997004 -0.01043607 -0.4783758 -0.72360647 -0.2032229 -0.5804346 -0.0010856496 -0.02356222 0.5240088 -0.35810086 0.4217135 -0.13124241 -0.10023319 0.34638923 -0.16340119 -0.5519263 -0.42394766 -0.45675194 0.4907283 0.25342894 0.42549467 -0.08865679 -0.017342634 -1.46041 -0.6006846 0.30685505 0.06256483 -0.26779935 0.33664376 -0.032866057 0.0004895981 -0.13765132 0.36105463 -0.08326681 -0.5169773 0.11153783 -0.046814818 -0.35349303 -0.7757431 -0.25139534 -0.10054251 0.046508837 -0.20918277 0.23281205 -0.5360624 -0.36664122 0.6835537 0.47090423 -0.22530808 -0.5086049 0.39318648 0.3954244 -0.1055059 -0.0762199 -1.2064246 0.6796863 0.8099834 -1.3518826 0.46276173 0.4626466 0.20418875 -0.1973842 -0.3530386 -0.050578013 0.5064376 0.6368331 0.9669518 0.7015652 0.35828424 0.404416 0.4854634 0.4956891 0.7123431 -0.081291124 -0.3432919 -0.8378317 0.29437402 0.24029115 0.2421707 -0.03805712 0.71129435 -0.5659853 -0.00851983 0.22261155 -0.10061166
m 0.3183557 -1.2171378 0.23483235 0.056490164 -0.018819267 -0.018404858 -0.47802344 -0.38080963 0.037066776 0.56392545 -0.65401727 0.5784745 -0.1361713 0.21893597 0.002440812 -0.06488101 -0.047372367 0.6818429 -0.20216735 0.031961005 -1.174098 0.24321999 0.40693694 -0.74551123 1.2075442 -0.01162339 0.4851199 -0.39352843 -0.47424668 0.66710746 0.26934817 0.4029936 -0.43961766 0.14628117 -0.2836825 -0.2521412 0.05430799 0.016971176 0.9565618 -0.497207 0.073102035 -0.2669029 0.40212977 0.2720848 -0.6916779 -0.45713973 -0.7292631 0.9119291 0.70425284 -0.42700315 0.3251773 -0.4306999 -0.0778286 -0.13039282 -0.40901944 0.5975682 0.46380073 0.39903095 0.087017275 -0.44973084 0.15193006 0.607419 0.12126932 -0.28345013 0.7533106 -0.49982855 0.39437747 -0.7541399 0.3920318 0.27560225 0.421154 -0.64556426 0.35435033 -0.289755 0.3471898 0.6080475 0.6199177 0.3345586 -0.2043549 -0.62969273 -0.40463495 -0.51218724 0.5452141 0.46730262 0.19243456 0.16287212 -0.25258827 -0.2563649 -0.1569655 0.3818038 0.0662887 -0.24825989 -0.032559115 -0.29107484 -0.77684593 0.43390253 0.7234213 0.26218775 -0.24727345 0.022971531
b -0.25459802 -0.2733001 0.26083964 -0.2250449 0.11198941 -0.20303664 0.01395395 -0.115138605 -0.3013428 0.36483878 -0.54928255 -0.0613332 -0.051429633 0.36839744 -0.21126056 -0.031051038 0.50658715 0.50743973 0.088413715 0.50703454 -0.14674532 -0.16603479 0.061061148 -0.51771307 1.088052 -0.29415247 -0.26597348 -0.3812961 -0.19217227 0.41158354 0.38474786 0.83159786 -0.09507876 0.6020671 0.1795829 -0.45679638 -0.79314786 0.33037454 0.4079665 -0.28826648 0.085770756 -0.09921201 0.34897646 -0.1418671 -0.98138887 -0.33079663 -0.43011063 0.48177615 -0.14366035 -0.1455123 -0.049852494 0.25276637 0.32184562 0.293256 0.2686984 -0.18789536 -0.19799516 0.09304187 0.115909904 0.36843044 0.49710512 0.27431798 -1.3571529 -0.140453 0.10205229 -0.13222654 0.27996954 -0.18739752 0.5740608 -0.14838955 -0.081858486 -0.45682004 0.5148516 -0.21304621 0.8172128 0.6729409 0.5213684 -0.16119194 0.030941812 -0.61974126 0.4064635 -0.41330674 0.44006115 0.31755358 0.5550191 0.17579365 -0.07099341 0.16986822 0.42774293 0.39609647 0.062115613 0.43209305 -0.0055727623 -0.26573592 -0.9156551 0.06087294 -0.13367718 0.6915788 -0.09811107 0.5282023
p -0.22148384 -0.759388 0.6906096 -0.63287103 0.38264364 -0.7426983 0.5816015 0.78948605 -0.04709687 0.50637865 -0.82829034 0.70324075 0.06947378 0.53719276 0.95068157 0.3694833 -0.3938687 0.53734595 -0.21196625 -0.20731422 -0.13682553 -0.15849884 0.8392012 0.23988141 0.16125876 0.001355037 0.1412776 -0.26669595 -0.34535348 -0.050564192 0.3964523 0.65254986 0.34393263 0.4075225 0.9741633 -0.38755757 -0.18567887 -0.056578618 0.66618204 -0.049266905 -0.09181504 -0.23072827 0.39191723 0.16389182 -0.034046605 -0.46615228 0.32966787 0.34666908 -0.13009824 -0.50859576 0.039487675 -0.08147422 0.31387258 -0.5022843 0.028850712 0.06365977 -0.2930077 -0.24997252 -0.085813545 0.2005886 0.22317345 0.43412036 -0.18615752 -0.16951275 0.29185066 -0.7451421 -0.24499996 -0.88677067 0.42924234 0.32832372 -0.008859505 -0.057481766 -0.10963434 0.46321145 -0.028109243 0.34384212 0.16808933 -0.543258 0.09024764 -0.14068665 0.25937355 -0.14051172 -0.41659558 -0.09024707 -0.5270473 0.11872687 -0.27823994 -0.50651294 -0.14698987 -0.15656696 0.020392764 -0.3059127 0.5899436 -0.13576661 -0.16966315 0.56417745 0.79509085 -0.49644846 -0.23731627 -0.20584618
w 0.43497178 -1.4294566 0.69104934 0.58322024 0.1341717 -0.6580986 0.4400212 0.69348997 0.21860918 0.29554564 -0.05793712 -0.2811966 -0.025542134 0.67569953 -1.4738008 -0.81507266 0.32899287 0.06591846 -0.61677766 0.67405486 -1.8495458 0.84035194 0.5722103 0.5576699 0.9433558 -0.7826435 -0.15023896 -0.39625862 -1.1027005 0.44532838 0.7397977 0.28076458 -0.31924877 -0.07262102 -0.86424506 -0.9733508 0.010582913 -0.1252619 0.44476786 -0.3247183 -0.50509673 -0.17541175 -0.5338787 0.27928331 -0.79647875 -0.6151837 -2.024939 0.6076602 1.0515276 -0.5968111 0.0761321 -1.004625 -0.21666378 -0.18855295 -0.8238825 0.7965538 0.5876684 0.32948753 0.890917 -0.9976701 0.19486551 0.7960957 -0.17955782 -1.0910454 0.85928506 -1.4561322 -0.40553668 -0.62579936 0.6517312 0.29187354 0.12588559 -0.74475926 0.10439056 -0.64984864 -0.12655534 0.568085 -0.65874034 -0.08816085 -0.19823295 -1.1487 -0.4850307 -0.7974027 0.33507738 0.3273444 -0.23151378 -0.09152362 -0.17956068 -1.0227185 -0.93606865 0.32709786 -0.26772946 0.0659497 0.061803546 0.2866401 0.7278713 -0.087895215 0.653718 0.6321677 0.25013736 0.92405444
f -0.6668555 -0.37154013 -0.31705317 0.22037436 -0.2838644 0.008658575 -0.022546368 0.03253415 -0.96912086 -0.03149586 -0.6826978 -0.09935387 0.16323653 0.44233778 -0.29840678 -0.38992295 0.087567955 -0.212868 -0.0033193568 0.65387267 -0.9406346 0.75556576 -0.33663964 0.27139482 0.29429522 -0.6861509 0.31250915 -0.67671525 -0.8814951 0.22324444 0.28037924 0.6346479 -1.0279481 0.42629126 -0.6898958 -0.5205705 -0.60023195 0.34993428 0.69930947 0.23016433 -0.16732717 0.117328666 0.53580153 -1.2650203 -0.18751316 -0.27273825 -0.57664734 0.7213515 -0.116794035 -0.46783665 0.045832455 0.33414084 0.51929647 -0.056772254 0.063937075 -0.052832093 0.07956497 -0.10509157 -0.0777183 -0.41546473 0.41502744 0.08065491 -0.47462037 -0.34823185 0.47358173 -0.15236592 -0.1355901 -0.15435955 0.5969613 -0.029137162 -0.2566065 -0.5334028 -0.05660133 -1.3246089 0.09063706 0.57389385 0.25899225 -0.4085327 0.49254826 0.62894714 -0.5035724 -0.8008751 -0.11330447 0.10894799 -0.118762486 0.07393791 -1.1075441 0.505945 0.23500033 0.93200946 -0.48065618 0.16235742 -0.44144318 -0.1596193 -0.19742087 0.17806983 0.42638078 0.92292637 -0.00040630638 0.16677801
k 0.4831232 -0.00837377 0.38760942 -0.9643963 0.6975762 0.3245532 0.10327773 -0.16889477 0.75365347 0.7313949 0.101128064 0.0725538 -0.16161118 0.25147775 0.45677283 -0.26020667 0.17607595 -0.12826753 -0.80606085 0.14758183 -0.06972369 -0.1859468 -0.507059 -0.014287012 0.15845847 0.3490738 0.31539714 0.18619789 0.3155747 0.029661557 -0.13194361 -0.4267097 -0.6408495 0.718702 1.3028525 -0.4758125 -0.3982929 -0.47774097 -0.43821 -0.8721898 -0.047148544 0.23923141 0.67516565 -0.39940318 0.09204234 -0.09989085 0.6564649 0.47636446 -0.19789986 -0.86060464 -0.30826077 0.13440602 0.15132883 -0.16000673 -0.048985295 -0.3513621 -0.31873336 -0.035234842 0.43387055 0.17154817 0.8784123 0.81593615 -0.7782832 0.7176143 0.32694396 -0.22559841 0.15868622 -0.016864266 0.34125897 -0.28230268 -0.13894948 -0.21960464 0.1525304 -1.161783 0.68796456 0.33229768 0.25934 -0.10025598 0.0357512 -0.48357314 -0.5296751 -0.4915341 0.48643944 0.21513751 -0.2463685 1.0063521 0.8304056 0.6311663 -0.42110348 0.42567554 0.13225758 0.12665685 -0.04955021 0.6480452 0.46468377 -0.14392771 -0.8406971 0.2518164 -0.3521512 0.77987415
[ 0.9747524 -2.2800388 0.7188002 -0.8730093 0.39348215 0.26683763 -0.034014963 -0.4743695 -0.22046135 0.69012755 -0.39218786 0.08909393 -0.21395677 0.9857727 -0.76780015 -0.92254615 -0.47288874 -0.18638085 -0.2436949 -0.21144359 -0.8349112 0.18630448 0.86555517 0.34518275 -0.21137956 0.28241995 0.407477 0.39515388 -0.52747464 0.49278727 -0.43329138 -0.19019817 0.08073417 0.34546742 0.4637113 -0.20381477 0.7319362 -0.9295385 -0.23531605 -0.8364139 0.5529477 -0.67112786 -0.29283485 0.8155705 -1.1929479 -0.6109648 0.7663128 1.3528973 -0.86047727 -1.4658439 -0.22283758 0.10366268 0.9056207 -0.39038706 0.05125187 -0.21797024 0.028097242 -0.64628845 -0.6320789 0.35069203 0.03927372 -0.02054074 -0.040621683 -0.5379984 1.0819448 -1.1036891 -0.13577497 -0.32514772 1.3154602 -0.57790154 0.59103954 -0.9055222 0.6661517 -1.3629689 0.28575432 0.78821063 0.37502727 -1.2811086 0.95833004 0.7040092 0.35355747 -0.55249494 0.5388513 -0.31396493 -0.5028114 -0.09644005 -0.38846162 0.30367678 0.61407775 0.7125308 -0.112273455 -0.47821784 -0.36441875 -1.5439061 -2.7329993 1.3760582 0.36666244 0.6167204 -1.3976994 0.16730477
] -0.008339433 -1.0442988 1.0261595 -0.16151278 -0.7246079 -0.2020631 0.21395195 -0.44680312 0.28893673 0.977813 -0.3852578 1.2011733 0.8701124 0.13574767 -0.8410766 -0.75279576 -0.1850099 -0.49957258 -0.19679177 1.221748 -0.93211 -0.07133181 0.44269672 -0.0064358925 -0.49243122 -0.16313653 -0.39922282 -0.8131962 0.056639135 -0.18355075 -0.61995953 0.67326754 1.15236 0.22047491 -0.6887255 -0.4234189 -0.73812973 -0.1387562 -0.5746122 -0.34472257 -0.12762018 -0.044210028 0.3754079 0.58310866 -2.072261 -1.3356571 -0.12771846 1.148245 -0.822485 -0.74834687 0.17642903 0.40587452 0.34624863 0.216456 -0.07695592 -0.12448135 0.03163815 0.50966924 -0.45398918 -0.32321844 0.118937805 0.3286243 -1.409679 -0.69657767 -0.36407578 0.42678028 0.06375173 -0.2551105 0.011093049 -0.5706164 0.36687967 0.23560259 0.04728196 -0.1657582 0.9286241 1.1774582 0.8002825 -0.33150893 0.046727374 1.0348579 0.103288405 -0.14696832 1.0812716 0.30168498 0.11450365 0.96534187 -0.16062142 0.29441875 0.55595565 1.1356146 0.2302286 -0.17758697 -0.3808906 -0.69765455 -1.6731097 1.3818934 0.2970611 0.84594655 -1.0268722 -0.29758477
v -0.5339807 -0.26329568 0.17180471 0.36236814 -0.4920524 -0.28130776 0.20215875 0.22152673 -1.0842838 -0.020452412 -0.5786356 0.0025053595 0.4571876 0.635393 -0.78252995 -0.0044905934 -0.15671065 0.39104125 -0.18191728 0.3443553 -0.73017865 0.8332188 0.37168878 -0.31209365 -0.1744716 -0.08753538 -0.20629059 -0.0035048327 -0.50917655 0.40123206 0.020969922 0.5615421 0.67814434 0.26126814 0.51997083 -0.118904114 -0.6763029 0.33200943 0.8980946 -0.4072506 -0.6311036 -0.28304914 -0.05729922 0.76333666 -0.48173657 -0.7873534 0.89838487 0.4747095 -0.5093769 -0.9294364 0.29601353 0.33887595 1.0017257 0.32708287 0.27562517 0.61575687 -0.8141366 0.17983417 -0.3116263 0.59375906 0.63403517 0.45233744 -1.584188 -0.1111137 0.24272123 -0.20219605 -0.38438728 -0.99903023 -0.5750179 0.3143758 0.17311084 0.8537017 0.03811539 -0.067470424 0.5007547 1.1603037 0.17595725 0.09865661 0.32793695 -0.91431016 -0.16082506 0.21373364 -0.113136396 0.22912405 -0.5989085 1.0451115 -0.40178668 -0.2768975 0.25144798 0.6822396 0.16329594 -0.1507309 -0.041047998 0.5788189 -0.20156726 -0.35238308 1.0793628 -0.19167794 -0.46799836 -0.059875797
z 0.15735501 0.5856998 -2.1495905 0.33619434 0.0035588427 0.9458941 -1.1089011 -1.1584423 -1.5754803 -0.77886564 -0.65446264 -0.14631449 0.4052095 0.4800676 -0.4243023 0.7927184 -0.41474983 -0.64117634 -0.3900725 1.0375488 -1.7381078 0.6662733 -0.6553709 2.040683 -0.87221956 -0.27096263 0.1694846 -0.051651876 -0.44487414 0.5780658 -0.9710722 -0.14252844 -1.38046 0.218426 -0.8413635 0.9798443 1.5002235 -0.3921241 -0.7787825 1.4026517 0.30459213 0.4041618 -1.5556647 0.6546216 0.639325 1.0755266 -0.92578346 -0.7415929 -0.769628 -0.47747102 -0.64254135 0.114660405 0.70729506 0.6602612 -1.0405053 -1.1689525 0.73379165 -0.6607808 0.2640546 0.4370149 0.1724974 -0.061098505 0.6878717 -0.35385436 0.4730333 -0.20637242 0.97196156 1.5403177 -0.2291868 0.68962383 -1.0266757 0.8026776 -0.7505342 -0.77763903 -1.1273178 -0.73314273 -1.6720576 -0.55286384 0.9476794 0.70956826 -1.4766697 -0.9539353 -0.21265899 -0.41045886 -1.738504 -0.36151376 -0.70796067 -1.4989326 -0.3742911 0.1731209 0.13234891 0.122277714 -0.5627576 -0.22163272 1.1301124 -0.16469833 1.3564956 0.68275076 1.4382809 0.9885383
x -1.4095579 0.38965043 -0.02133075 -0.07822993 -0.83512104 -0.5150875 0.11039221 1.7347515 -1.2942324 0.5444463 -0.47631833 -0.08478792 -0.6901499 -0.05344975 0.445856 0.085862204 -1.6091536 0.16059075 1.0444541 0.47776613 0.90461594 -0.32529137 0.7458245 -0.26443183 0.6073566 0.268279 -0.47161272 -0.7319212 0.5659909 -0.94490457 0.4772389 0.38524365 1.5889802 0.019359091 -0.22826436 0.33386308 1.0877004 0.70725757 0.12887555 -0.20345938 -0.92770547 -0.31524554 0.73268384 0.5418385 -0.9822833 0.13522217 -1.1744305 0.59173757 0.59056795 1.5372188 -0.1713297 0.011754208 -0.32634962 0.26586923 0.744999 0.2696616 0.0035582592 0.08557323 0.29041559 0.48978758 0.38815045 0.43511108 -1.6737 -0.75584626 -0.8643871 0.28486052 -0.16749805 -0.8274729 2.2305646 0.66362804 -0.45729968 -0.855565 -0.8449534 1.3495274 0.60434073 0.7137266 0.67421263 0.26880524 -0.38348 -0.008523388 -0.36388195 0.35175607 -0.54948103 0.4255391 0.5502578 0.9606179 -1.0773352 -0.020365218 0.3862934 0.06669632 -0.46493977 0.15564802 -0.6525569 1.0514928 -2.7670074 1.5826695 0.25052124 -1.1560372 -0.8242887 -0.37635198
q 0.27427977 -0.4600977 -1.0847418 -1.8453288 0.17514715 0.46330935 0.010958714 0.22617774 0.60656935 1.8887643 -1.2980003 1.0566959 0.3714604 -0.05645938 2.638804 -0.3630585 -0.5228033 -1.0522364 0.6621339 0.86532855 -0.61197543 0.7375593 -0.99828225 -0.14262791 1.4287175 0.35941035 0.8806176 -0.21479076 0.103851914 -0.1764706 0.25446638 0.26076737 -1.3010856 0.061072946 -0.024166655 -1.7606044 0.79650754 -0.45875144 0.29921576 -0.82124186 -1.722825 1.0141865 2.1533892 -1.3579996 -0.0030903227 -0.04993476 -0.39569154 1.6122737 -0.7710482 -0.07666674 -0.71701425 0.10076907 -0.12538396 0.16346668 0.2278177 -0.22725675 0.61334157 -0.11460639 0.83837223 -0.006168758 0.41835597 -0.58847713 1.1319032 1.3185079 0.45506608 -0.53865314 -0.9835523 -1.0316852 1.4486796 0.7140673 -0.5272357 -0.94783765 -0.17330411 -2.9396472 0.46769637 0.85969466 2.2755709 0.4763729 -0.67439514 -0.3510483 -2.0643656 -1.5636319 -0.48135057 1.0291903 -0.1291294 1.4230592 -0.5688988 1.4551828 0.48190945 1.1497419 0.67825353 0.6440096 -0.5617988 1.1841817 0.19507824 1.1016823 0.4916858 -0.27482438 -0.93033516 0.84726566
j 0.16266435 -1.5048527 -0.4084124 -2.1702197 -0.6669442 0.7735075 -0.9411347 -0.2269871 -0.43686128 -0.25256237 -0.6523779 -0.014814317 0.44472706 0.907646 -0.13029598 0.62505525 0.3626834 0.89819515 0.6647001 0.9982646 -0.010868045 -0.4298609 -0.7658737 -1.0053347 -0.53461 0.08683188 -0.83496475 2.0175042 0.44062307 -0.56731576 -0.4444352 0.6305176 0.01634996 1.0690744 0.8463987 -0.7987059 0.020604583 -0.3020634 -0.9110464 0.87155926 0.04578056 0.24608336 0.8679597 0.48367116 -0.07014846 -0.07377333 1.4897105 0.32791224 -0.31421492 -0.43460676 -0.11765758 0.777692 1.0195986 -0.6523467 0.2935044 0.04405751 -0.38135153 0.7973405 1.3958529 0.071537174 0.11615429 0.24854805 -1.2559445 -0.025516717 -0.5812246 -0.10360882 -0.02180544 -1.287224 0.6384503 0.9495955 -0.8659608 -0.07075866 -0.888632 0.026065817 0.86871755 0.5712312 1.1421392 -0.47056076 -0.121400625 0.0006203697 -1.5559486 0.5650977 -0.08224533 0.8537315 0.0052094525 1.2144759 -0.0023103028 0.31831083 0.009672058 -0.049481466 -0.042090643 -0.13629474 0.41862896 1.1268641 -0.033115383 -0.20561227 0.9998349 0.15348066 0.015132793 0.048550792
